#ifndef TENSORS_H
#define TENSORS_H

#include "./hls_tensor.h"

const Tensor3D tensor_d[15] = { {10, 10, 5, 0, 0}, {10, 10, 10, 500, 1}, {10, 10, 10, 1500, 1}, {4, 4, 10, 2500, 2}, {4, 4, 10, 2660, 2}, {4, 4, 10, 2820, 2}, {4, 4, 10, 2980, 2}, {2, 2, 4, 3140, 3}, {2, 2, 4, 3156, 3}, {2, 2, 4, 3172, 3}, {2, 2, 4, 3188, 3}, {2, 2, 4, 3204, 3}, {2, 2, 4, 3220, 3}, {2, 2, 4, 3236, 3}, {2, 2, 4, 3252, 3} };

const tensor_t w1d[3268] = {0.488037109375, 0.13934326171875, -0.088134765625, 0.646728515625, -0.38079833984375, -0.49566650390625, 0.10357666015625, -0.22479248046875, -0.044189453125, -0.93463134765625, 0.14166259765625, -0.44244384765625, 0.4652099609375, 0.12884521484375, 0.3387451171875, 0.7220458984375, 0.0250244140625, 0.22198486328125, -0.0794677734375, -0.15472412109375, -0.03228759765625, -0.52191162109375, -0.5943603515625, 0.01373291015625, 0.1944580078125, -0.04266357421875, -0.38177490234375, 0.0914306640625, -0.3994140625, -0.2244873046875, -0.393798828125, -0.23583984375, 0.87921142578125, -0.0291748046875, 0.06341552734375, 0.4034423828125, 0.58837890625, -0.4532470703125, -0.2391357421875, -0.0972900390625, 0.37432861328125, -0.0047607421875, 0.40936279296875, -0.1212158203125, 0.17962646484375, 0.2159423828125, 0.58551025390625, 0.64630126953125, 0.008544921875, 0.4451904296875, -0.082763671875, 0.6168212890625, 0.21990966796875, -0.11236572265625, 0.04083251953125, 0.26885986328125, -0.29888916015625, 0.2525634765625, -1.00439453125, 0.28546142578125, -0.3304443359375, -0.129150390625, 0.45361328125, 1.2535400390625, -0.5406494140625, 0.30743408203125, -0.12744140625, 0.77191162109375, -0.0640869140625, -0.26446533203125, 0.01092529296875, 0.17474365234375, -0.13623046875, -0.564697265625, -0.7247314453125, 0.360107421875, -0.3824462890625, 0.23291015625, 0.28118896484375, 0.785888671875, -0.0843505859375, -0.00299072265625, -0.1588134765625, 0.13226318359375, -0.2576904296875, -0.05487060546875, 0.3447265625, -0.37347412109375, 0.515380859375, 0.236083984375, 0.00384521484375, 0.616455078125, 0.1412353515625, -0.57666015625, -0.0499267578125, -0.105224609375, 0.44927978515625, 0.21185302734375, 0.0169677734375, 0.40887451171875, -0.16961669921875, -0.20721435546875, 0.3973388671875, -0.61444091796875, 0.4337158203125, 0.1944580078125, 0.577880859375, -0.7210693359375, -0.518798828125, 0.669189453125, 0.4512939453125, 0.1724853515625, -0.124267578125, 0.21435546875, 0.032958984375, -0.0916748046875, 0.111083984375, 0.27105712890625, -0.0072021484375, 0.63446044921875, 0.27099609375, 0.0858154296875, -1.32647705078125, 0.26470947265625, -0.456787109375, 0.03656005859375, -0.01995849609375, -0.2225341796875, -0.16064453125, 0.11383056640625, -0.1722412109375, -0.34149169921875, 0.03466796875, 0.31573486328125, -0.33013916015625, -0.0848388671875, -0.025146484375, -1.45819091796875, 0.30377197265625, 0.36883544921875, -0.285888671875, -0.081298828125, 0.38311767578125, 0.78448486328125, 0.6514892578125, 0.24407958984375, 0.11810302734375, 1.27850341796875, -0.231689453125, -0.993896484375, -0.17083740234375, 0.40203857421875, 0.43231201171875, 0.0736083984375, -1.13433837890625, 0.381103515625, 0.6138916015625, -0.8037109375, -0.64056396484375, -1.27520751953125, -0.376953125, 0.0615234375, -0.013916015625, 0.9588623046875, 0.23284912109375, -0.1552734375, -0.12713623046875, 0.03399658203125, 0.56195068359375, -0.46917724609375, -0.56585693359375, 0.14508056640625, 0.5101318359375, 0.49176025390625, 0.77801513671875, 0.1844482421875, 0.26031494140625, 0.1240234375, 0.0810546875, 0.2076416015625, -0.04058837890625, -0.40692138671875, -0.7095947265625, -0.5897216796875, -0.5379638671875, 0.13226318359375, 0.2022705078125, 0.195068359375, -0.20623779296875, -0.2047119140625, -0.40020751953125, 0.0968017578125, -0.5804443359375, -0.2783203125, 0.353759765625, 0.0081787109375, 0.1171875, -0.07470703125, -0.2196044921875, 0.01885986328125, 0.027099609375, -0.00103759765625, 0.02545166015625, 0.0489501953125, -0.30548095703125, 0.0556640625, 0.38037109375, 0.07470703125, 0.68475341796875, -0.28387451171875, -0.05987548828125, 0.13739013671875, 0.57159423828125, 0.4166259765625, 0.1627197265625, 0.12548828125, 0.354248046875, -0.046142578125, -0.42669677734375, -0.16644287109375, 0.41644287109375, 0.0556640625, -0.6102294921875, -0.12481689453125, 0.0252685546875, 0.1671142578125, 0.09881591796875, 0.1075439453125, 0.561767578125, -0.05426025390625, 0.45697021484375, 0.2867431640625, 0.295166015625, -0.142578125, 0.01849365234375, -0.07958984375, -0.06451416015625, 0.57098388671875, -0.4835205078125, 0.3365478515625, -0.09222412109375, 0.28643798828125, 0.63726806640625, -0.8995361328125, 0.37493896484375, 0.27044677734375, -0.71331787109375, 1.03094482421875, 1.02490234375, 0.22613525390625, 0.39306640625, 0.565673828125, -0.40545654296875, -0.39288330078125, -0.51556396484375, -0.1383056640625, -0.360107421875, 0.35284423828125, -0.74761962890625, -0.049560546875, 0.06512451171875, 0.39300537109375, 0.3162841796875, 0.41107177734375, -1.08282470703125, 0.035888671875, 0.19708251953125, -0.04913330078125, 0.5545654296875, 0.4114990234375, -0.03466796875, 0.03570556640625, -0.456787109375, 0.236083984375, 0.43194580078125, 0.98980712890625, 0.26031494140625, 0.12713623046875, -0.14019775390625, -0.84161376953125, 0.52142333984375, 0.2376708984375, 0.4534912109375, -0.30322265625, -0.41949462890625, 0.11126708984375, -0.08673095703125, -0.08929443359375, -0.0057373046875, 0.12225341796875, 0.1375732421875, 0.0616455078125, 1.135009765625, 0.0985107421875, 1.20245361328125, -0.18963623046875, -0.374755859375, 0.0823974609375, 0.336181640625, 0.13446044921875, -0.2298583984375, 0.40350341796875, -0.52581787109375, -0.412353515625, -0.16595458984375, 0.23876953125, 0.16156005859375, -0.2608642578125, 0.0166015625, -0.14959716796875, 0.02386474609375, -0.558349609375, -0.079833984375, -0.37469482421875, -0.24658203125, -0.203369140625, -0.361083984375, -0.04620361328125, -0.150146484375, -0.2880859375, -0.43212890625, 0.50091552734375, -0.927490234375, 0.2906494140625, -0.91796875, -0.10479736328125, 0.438232421875, 0.0693359375, -0.225341796875, 0.1795654296875, -0.29803466796875, 0.7137451171875, 0.35845947265625, 0.4305419921875, 0.2813720703125, -0.11474609375, -0.460693359375, -0.8717041015625, 0.015380859375, 0.4959716796875, 0.08538818359375, 0.09686279296875, 0.21612548828125, -0.41961669921875, -0.06060791015625, -0.07000732421875, -0.42584228515625, 0.02716064453125, 0.03570556640625, 0.17181396484375, 0.18499755859375, -0.3941650390625, 0.1005859375, 0.434814453125, -0.99273681640625, -0.1427001953125, 0.01434326171875, -0.06219482421875, 0.477783203125, 0.00177001953125, 0.29571533203125, -0.34893798828125, -0.0743408203125, 0.58465576171875, 0.15740966796875, -0.278076171875, 0.1416015625, -0.95947265625, 0.8131103515625, 0.00860595703125, 0.137451171875, 0.14825439453125, -0.0269775390625, -1.03887939453125, 0.3013916015625, -0.237060546875, 0.010986328125, -0.375732421875, 0.47589111328125, 0.51837158203125, 0.50042724609375, 0.54541015625, 0.18316650390625, -0.3328857421875, -0.45574951171875, -0.28741455078125, 0.3070068359375, 0.63690185546875, 0.42828369140625, -0.2982177734375, 0.01226806640625, 0.50372314453125, -0.09613037109375, -0.61529541015625, -0.422119140625, 0.31500244140625, -0.06585693359375, -0.5064697265625, -1.13043212890625, 0.4630126953125, -0.27960205078125, -0.2122802734375, -0.1080322265625, -0.07403564453125, -0.2581787109375, 0.0343017578125, 0.36871337890625, -0.47735595703125, -0.28057861328125, -0.17327880859375, 0.24884033203125, 0.26214599609375, -0.7218017578125, 0.52484130859375, -0.1441650390625, -0.48175048828125, 0.28375244140625, -0.333984375, 0.1866455078125, -0.1448974609375, -0.2796630859375, -0.2337646484375, -0.26611328125, -0.04583740234375, 0.2158203125, -0.00994873046875, -0.86126708984375, -0.43853759765625, -0.3687744140625, -0.52520751953125, -0.0789794921875, -0.259765625, -0.2244873046875, 0.0240478515625, 0.25384521484375, -0.32427978515625, 0.0096435546875, 0.30615234375, 0.053955078125, 0.0152587890625, 1.18731689453125, 0.1158447265625, -0.5228271484375, -0.26397705078125, 0.15753173828125, -1.74371337890625, -0.34942626953125, -0.32489013671875, 0.076416015625, 0.4251708984375, 0.04254150390625, -0.4454345703125, -0.72320556640625, 0.0396728515625, 0.34320068359375, 0.20318603515625, 0.05889892578125, 0.6591796875, -0.1202392578125, 0.60064697265625, 0.02508544921875, -0.11151123046875, -1.0816650390625, 0.422607421875, -1.07501220703125, 0.01068115234375, 0.7449951171875, 0.14483642578125, -0.27716064453125, 0.1934814453125, -0.2952880859375, -0.41143798828125, -0.17529296875, -0.0537109375, 0.3492431640625, -1.93170166015625, 0.26153564453125, -0.5689697265625, 0.60400390625, -0.2410888671875, -0.03118896484375, -0.1708984375, 1.06951904296875, -0.1959228515625, -0.0225830078125, 0.234130859375, 0.5289306640625, -0.21142578125, -0.10107421875, 0.05145263671875, -0.40899658203125, -0.68597412109375, -0.4293212890625, -0.40899658203125, 0.60009765625, 0.5086669921875, 0.342041015625, -0.16058349609375, 0.95306396484375, 0.939208984375, 0.453125, 0.24725341796875, -0.2137451171875, 0.12542724609375, -0.18231201171875, 0.0498046875, -0.34552001953125, 0.16094970703125, -0.0928955078125, -0.09326171875, -0.06231689453125, -0.0892333984375, -0.68524169921875, 0.20233154296875, -0.116943359375, 0.20965576171875, 0.2752685546875, -0.0413818359375, -0.1829833984375, -0.03570556640625, 0.17486572265625, 0.2327880859375, 0.0029296875, 0.06304931640625, 0.14892578125, -0.41339111328125, -0.11761474609375, 0.06219482421875, -0.0162353515625, 0.041015625, -0.3387451171875, -0.273193359375, 0.16217041015625, -0.49615478515625, -0.27655029296875, -0.12384033203125, 0.38018798828125, -0.44244384765625, 0.1339111328125, 0.06732177734375, 0.24688720703125, 0.2293701171875, -0.09326171875, 0.4881591796875, 0.1175537109375, 0.4036865234375, -0.23956298828125, -0.05029296875, 0.1368408203125, -0.12432861328125, -0.0283203125, 0.04364013671875, -0.15020751953125, -0.07012939453125, -0.18701171875, -0.4708251953125, 0.29693603515625, 0.303955078125, 0.17547607421875, 0.26470947265625, -0.18450927734375, -0.39739990234375, -0.11279296875, 0.17645263671875, 0.04266357421875, -0.3983154296875, 0.27471923828125, 0.022705078125, 0.04815673828125, -0.10333251953125, 0.26043701171875, 0.156494140625, 0.0540771484375, -0.07806396484375, 0.10302734375, -0.1197509765625, -0.58367919921875, 0.11102294921875, -0.07489013671875, -0.08563232421875, -0.29949951171875, 0.02276611328125, 0.38397216796875, 0.22027587890625, 0.48712158203125, -0.20404052734375, -0.4764404296875, 0.1717529296875, 0.00616455078125, 0.072021484375, -0.14453125, -0.085205078125, 0.241455078125, -0.37261962890625, 0.4547119140625, -0.2996826171875, -0.4918212890625, 0.167236328125, 0.372314453125, 0.17193603515625, -0.064453125, -0.358642578125, -0.45782470703125, -0.4915771484375, 0.1251220703125, 0.24822998046875, 0.304931640625, -0.028076171875, 0.2200927734375, -0.19384765625, 0.10125732421875, 0.1170654296875, -0.10528564453125, -0.25396728515625, -0.0421142578125, -0.07568359375, 0.45977783203125, 0.2891845703125, 0.2216796875, 0.161865234375, -0.1258544921875, 0.2813720703125, -0.090576171875, -0.0498046875, -0.3968505859375, -0.0283203125, 0.0115966796875, -0.19964599609375, -0.10113525390625, -0.0035400390625, -0.2645263671875, -0.0260009765625, -0.03106689453125, 0.02728271484375, -0.33868408203125, -0.10546875, -0.41192626953125, 0.14361572265625, -0.11944580078125, 0.12615966796875, -0.11248779296875, 0.3193359375, -0.21136474609375, 0.31658935546875, 0.22320556640625, -0.177734375, -0.28271484375, 0.35943603515625, 0.07598876953125, 0.2381591796875, -0.24151611328125, 0.19091796875, 0.04107666015625, 0.137939453125, 0.0765380859375, -0.0810546875, -0.00384521484375, 0.0364990234375, -0.15460205078125, -0.4224853515625, -0.1226806640625, 0.421630859375, -0.02606201171875, 0.25762939453125, -0.17822265625, -0.05078125, 0.15191650390625, 0.031982421875, -0.17266845703125, -0.08673095703125, 0.0428466796875, -0.20086669921875, 0.1087646484375, 0.2525634765625, -0.05975341796875, 0.13067626953125, 0.09979248046875, -0.0582275390625, -0.01605224609375, -0.24896240234375, 0.1292724609375, 0.036865234375, -0.08843994140625, 0.18011474609375, 0.30926513671875, -0.040283203125, 0.04217529296875, -0.14990234375, -0.033935546875, 0.00244140625, -0.52789306640625, -0.25927734375, 0.111572265625, 0.201416015625, 0.19097900390625, 0.1834716796875, -0.21832275390625, 0.4635009765625, -0.13897705078125, 0.063720703125, -0.1622314453125, -0.010498046875, -0.138671875, -0.33782958984375, -0.14190673828125, 0.41583251953125, 0.35614013671875, 0.1800537109375, 0.06207275390625, -0.10302734375, -0.11407470703125, -0.00323486328125, 0.0484619140625, 0.1119384765625, -0.1455078125, -0.26507568359375, 0.00811767578125, 0.0933837890625, -0.26348876953125, 0.24749755859375, -0.23858642578125, -0.07830810546875, -0.566650390625, 0.26739501953125, -0.49053955078125, 0.0616455078125, 0.261962890625, 0.21142578125, 0.384033203125, -0.1298828125, 0.63189697265625, 0.50537109375, 0.17352294921875, 0.3685302734375, 0.404296875, -0.21746826171875, 0.0023193359375, 0.50897216796875, -0.055908203125, -0.01739501953125, -0.0499267578125, -0.19866943359375, 0.21319580078125, -0.75518798828125, 0.0784912109375, 0.07965087890625, -0.0516357421875, -0.07562255859375, 0.32073974609375, 0.22943115234375, 0.24859619140625, 0.01531982421875, 0.0418701171875, 0.3740234375, 0.09649658203125, -0.12005615234375, -0.439453125, 0.10107421875, -0.5655517578125, 0.1829833984375, -0.5634765625, 0.01531982421875, 0.03265380859375, 0.2254638671875, -0.263427734375, -0.18359375, -0.6146240234375, 0.25775146484375, -0.2701416015625, -0.0234375, 0.022705078125, 0.10882568359375, 0.3818359375, -0.25689697265625, -0.0924072265625, -0.17425537109375, 0.20184326171875, -0.12548828125, 0.16864013671875, -0.0738525390625, -0.986083984375, -0.0302734375, 0.69970703125, -0.1334228515625, -0.52691650390625, 0.71661376953125, 0.10699462890625, 0.3155517578125, -0.002197265625, 0.1260986328125, 0.14910888671875, -0.60546875, 0.9345703125, 0.318359375, 0.267333984375, 0.2054443359375, 0.33453369140625, 0.0416259765625, 0.54669189453125, 0.232421875, -0.22216796875, -0.41845703125, -0.10894775390625, 0.2572021484375, 0.2891845703125, -0.7265625, -0.1890869140625, -0.08526611328125, -0.31494140625, -0.27459716796875, -0.388427734375, 0.52880859375, 0.1524658203125, -0.10955810546875, -0.191162109375, -0.4581298828125, -0.0308837890625, 0.02947998046875, -0.12664794921875, 0.08660888671875, 0.01385498046875, 0.5107421875, -0.26763916015625, 0.6905517578125, 0.28424072265625, 0.42034912109375, 0.27923583984375, -0.0028076171875, 0.13360595703125, 0.2655029296875, 0.78363037109375, 0.23779296875, -0.14373779296875, -0.534912109375, 0.52313232421875, -1.35693359375, 0.45538330078125, 1.2720947265625, 0.1739501953125, -0.637939453125, 0.36883544921875, -0.294921875, 0.80938720703125, 0.15057373046875, -0.65155029296875, 0.79364013671875, 0.355712890625, -0.6961669921875, 0.00933837890625, 0.16619873046875, 0.25927734375, -0.129150390625, 0.166259765625, -0.27880859375, 0.17681884765625, -0.1239013671875, -0.26995849609375, 0.31329345703125, -0.05902099609375, 0.201416015625, 0.079345703125, -0.6173095703125, -0.040771484375, -0.3515625, 0.03204345703125, -0.19964599609375, 0.175048828125, -0.47662353515625, -0.262939453125, 0.06390380859375, -0.39849853515625, 0.20751953125, 0.3741455078125, -0.294677734375, -0.02484130859375, 0.50823974609375, -0.3436279296875, -0.4971923828125, -0.00469970703125, 0.54180908203125, -0.45025634765625, 0.5330810546875, -0.2879638671875, 0.927490234375, 0.59661865234375, 0.5291748046875, 0.029296875, 0.3948974609375, 0.83233642578125, 0.6026611328125, 0.17822265625, 1.217041015625, -0.5311279296875, 0.7012939453125, 0.0108642578125, 0.21923828125, 0.17425537109375, 0.4700927734375, -0.2642822265625, 0.36273193359375, 0.1126708984375, 0.47039794921875, -0.06829833984375, 0.1583251953125, 0.43096923828125, -0.15960693359375, -0.32781982421875, 0.17083740234375, -0.04779052734375, -0.09716796875, -0.13482666015625, 0.159423828125, -0.18572998046875, 0.2867431640625, -0.29449462890625, 0.54791259765625, 0.08258056640625, -0.3046875, 0.10693359375, 0.30889892578125, -0.45294189453125, 0.3626708984375, -0.0238037109375, -0.08599853515625, -0.1453857421875, 0.44622802734375, -0.3543701171875, 0.2037353515625, 0.3009033203125, 0.26483154296875, 0.2437744140625, 0.09912109375, -0.041015625, 0.53857421875, 0.3465576171875, 0.313720703125, -0.16522216796875, 0.6639404296875, -0.0234375, -0.33135986328125, -0.18511962890625, -0.32562255859375, -0.34906005859375, -0.0316162109375, -0.2928466796875, -0.16796875, 0.15887451171875, -0.2413330078125, -0.349365234375, -0.27001953125, -0.04296875, 0.2122802734375, -0.0341796875, 0.0247802734375, 0.05316162109375, 0.47381591796875, -0.307861328125, 0.19097900390625, -0.01019287109375, -0.00360107421875, -0.2183837890625, 0.052490234375, -0.09521484375, 0.1351318359375, -0.3948974609375, 0.29559326171875, 0.134521484375, -0.31512451171875, -0.15997314453125, 0.6495361328125, -0.1885986328125, 0.22900390625, -0.427978515625, -0.052734375, 0.12542724609375, -0.83636474609375, 0.1536865234375, 0.23455810546875, 0.016357421875, -0.25457763671875, -0.04931640625, -0.1424560546875, -0.20623779296875, 0.14581298828125, -0.33990478515625, -0.23858642578125, 0.526611328125, -0.03106689453125, -0.17340087890625, 0.281982421875, 0.006591796875, -0.05340576171875, 0.2374267578125, -0.19366455078125, 0.39984130859375, -0.30181884765625, -0.47906494140625, -0.23681640625, -0.096923828125, -0.01300048828125, -0.79913330078125, 0.1800537109375, -0.9019775390625, 0.28167724609375, 0.17608642578125, 0.0052490234375, -0.34942626953125, 0.04638671875, 0.17669677734375, -0.09344482421875, 0.15283203125, 0.2869873046875, -0.203857421875, -0.01861572265625, 0.00103759765625, 0.01885986328125, -0.248779296875, -0.35260009765625, 0.3282470703125, 0.02587890625, -0.61114501953125, -0.01116943359375, 0.05816650390625, 0.1767578125, -0.40289306640625, 0.67315673828125, -0.26226806640625, 0.09735107421875, 0.16943359375, 0.38262939453125, 0.590576171875, -0.29052734375, -0.11444091796875, 0.1036376953125, -0.27337646484375, 0.19854736328125, 0.17315673828125, 0.046142578125, 0.23370361328125, 0.13433837890625, 0.06732177734375, -0.34661865234375, 0.3187255859375, 0.16522216796875, -0.23846435546875, -0.35986328125, -0.09844970703125, -0.405517578125, -0.130126953125, -0.3282470703125, 0.10467529296875, 0.105224609375, -0.1768798828125, -0.114990234375, -0.06231689453125, -0.22259521484375, 0.19842529296875, -0.05828857421875, 0.1617431640625, 0.0079345703125, 0.32568359375, 0.3712158203125, 0.35357666015625, 0.030517578125, -0.1131591796875, 0.07537841796875, -0.415771484375, -0.28424072265625, -0.0374755859375, -0.1004638671875, -0.1571044921875, 0.398681640625, -0.30572509765625, 0.00799560546875, 0.2896728515625, 0.59039306640625, -0.0640869140625, 0.14599609375, 0.477294921875, 0.24664306640625, -0.43426513671875, 0.01641845703125, -0.0028076171875, -0.10552978515625, 0.1788330078125, -0.0341796875, 0.14056396484375, 0.39739990234375, 0.37091064453125, -0.4569091796875, -0.43304443359375, 0.35052490234375, -0.07440185546875, -0.2139892578125, 0.35491943359375, -0.38592529296875, 0.39556884765625, 0.12359619140625, -0.1707763671875, -0.0406494140625, -0.48126220703125, 0.16107177734375, 0.01409912109375, -0.066650390625, -0.48223876953125, -0.3765869140625, 0.05194091796875, -0.01043701171875, -0.0479736328125, -0.18365478515625, -0.1917724609375, -0.059814453125, -0.29345703125, 0.7237548828125, 0.033203125, -0.1925048828125, -0.42059326171875, -0.0650634765625, 0.00872802734375, -0.2235107421875, 0.0665283203125, 0.17205810546875, 0.30841064453125, 0.2620849609375, 0.0836181640625, 0.3309326171875, 0.53155517578125, 0.59954833984375, 0.21771240234375, -0.02569580078125, 0.68096923828125, -0.20025634765625, -0.20263671875, -0.0936279296875, 0.10382080078125, -0.30303955078125, -0.0247802734375, -0.34039306640625, -0.13519287109375, -0.13616943359375, 0.3636474609375, 0.0772705078125, 0.49774169921875, -0.15509033203125, 0.0155029296875, 0.64996337890625, 0.26776123046875, -0.5660400390625, -0.03668212890625, 0.18658447265625, -0.0274658203125, -0.01715087890625, -0.1259765625, 0.22515869140625, 0.12481689453125, -0.03387451171875, -0.08184814453125, -0.01812744140625, 0.0184326171875, 0.296875, 0.3870849609375, -0.17120361328125, -0.1685791015625, 0.33245849609375, -0.06671142578125, 0.26531982421875, -0.19976806640625, 0.62200927734375, 0.06036376953125, -0.18377685546875, 0.41015625, -0.3875732421875, -0.6544189453125, 0.0948486328125, 0.05999755859375, 0.10516357421875, -0.4366455078125, 0.268310546875, 0.17864990234375, 0.03448486328125, 0.07598876953125, 0.30029296875, 0.14459228515625, -0.57916259765625, -0.57928466796875, -0.0689697265625, -0.540771484375, -0.07391357421875, -0.3768310546875, -0.1849365234375, -0.236328125, -0.009765625, -0.4210205078125, -0.36968994140625, 0.32965087890625, -0.24365234375, 0.8370361328125, -0.4361572265625, -0.074462890625, -0.20416259765625, -0.20086669921875, -0.48052978515625, 0.78338623046875, -0.73443603515625, 0.12158203125, 0.2525634765625, 0.3426513671875, 0.16094970703125, 0.01373291015625, 0.290283203125, 0.03765869140625, -0.1177978515625, 0.11639404296875, -0.07562255859375, 0.52044677734375, -0.136474609375, 0.11517333984375, -0.0469970703125, -0.10125732421875, -0.08465576171875, 0.55181884765625, -0.51898193359375, -0.59051513671875, 0.69268798828125, 0.396240234375, -0.3001708984375, 0.07861328125, 0.50146484375, 0.6466064453125, -0.2452392578125, -0.62969970703125, 0.01409912109375, 0.73040771484375, -1.34393310546875, -0.5762939453125, -0.27227783203125, 0.17352294921875, -0.1534423828125, -0.10601806640625, -0.65216064453125, 0.35418701171875, -0.6715087890625, -0.4678955078125, 0.6014404296875, 0.35406494140625, -0.065185546875, -0.61224365234375, -0.2261962890625, -0.06884765625, -0.1185302734375, 0.36614990234375, 0.130859375, 0.06121826171875, -0.27325439453125, -0.262939453125, -0.73052978515625, 0.19866943359375, 0.3255615234375, -0.5345458984375, -0.165771484375, -0.1925048828125, -0.09832763671875, 0.28399658203125, -0.2606201171875, 0.097412109375, 0.17535400390625, 0.126220703125, -0.369873046875, -0.20074462890625, 0.40570068359375, -0.05718994140625, 0.5224609375, 0.0748291015625, 0.53594970703125, 0.594970703125, -0.13775634765625, -0.40765380859375, 0.34228515625, 0.39312744140625, 0.24383544921875, -0.439453125, -0.478271484375, -0.95599365234375, 0.175537109375, -0.55548095703125, -0.32452392578125, -0.1575927734375, 1.81292724609375, -0.47296142578125, -0.6661376953125, 0.037841796875, -0.28173828125, -0.0047607421875, 0.66748046875, -0.21429443359375, -0.9952392578125, 0.236083984375, -0.02252197265625, -0.2479248046875, -0.1546630859375, -0.00396728515625, 0.3233642578125, -0.22265625, -0.0731201171875, 0.41632080078125, 0.80389404296875, -0.08416748046875, 0.6651611328125, -0.0880126953125, 0.25128173828125, -0.11474609375, -0.00543212890625, 0.1771240234375, 0.01495361328125, 0.1551513671875, 0.069580078125, 0.0426025390625, -0.1142578125, 0.110107421875, -0.10198974609375, 0.25958251953125, -0.9991455078125, -0.8326416015625, 0.139404296875, -1.17620849609375, -0.325439453125, 0.06365966796875, 0.28680419921875, -0.479248046875, -0.6431884765625, -0.255126953125, -0.1746826171875, 0.16351318359375, -0.5523681640625, 0.03948974609375, 0.2421875, 0.0281982421875, -0.45703125, 0.3072509765625, 0.03729248046875, -0.16534423828125, -0.1893310546875, -0.21099853515625, -0.1976318359375, 0.0120849609375, 0.2000732421875, -0.70953369140625, 0.115234375, 0.095947265625, -0.044189453125, 0.25567626953125, 0.07275390625, -0.28802490234375, 0.0841064453125, 0.3817138671875, -0.26580810546875, 0.11639404296875, 0.048583984375, -0.162841796875, 0.2044677734375, -0.02789306640625, -0.177978515625, -0.10003662109375, -0.46783447265625, -0.10870361328125, -0.4825439453125, -0.40093994140625, 0.40618896484375, -0.5166015625, -0.28118896484375, -0.0782470703125, 0.549072265625, 0.8365478515625, 0.104248046875, -0.538330078125, 0.17645263671875, 0.04541015625, -0.577392578125, -0.27362060546875, 0.41375732421875, -0.17022705078125, -0.524658203125, 1.01324462890625, 0.18585205078125, -0.76690673828125, -0.45562744140625, -0.396484375, 0.531494140625, 0.07525634765625, -0.126220703125, 0.23272705078125, 0.03900146484375, 0.00286865234375, -0.0509033203125, 0.8604736328125, 0.71160888671875, -0.10791015625, -0.69757080078125, -1.699462890625, -0.55126953125, -0.76434326171875, -0.56817626953125, -0.5299072265625, -0.0716552734375, -0.37188720703125, -0.58721923828125, -0.0936279296875, -0.04510498046875, -0.2684326171875, -0.10345458984375, 0.4129638671875, -0.0977783203125, -0.10418701171875, -0.08782958984375, -0.003662109375, -0.09619140625, 0.0185546875, -0.18365478515625, -0.08453369140625, -0.07232666015625, -0.00311279296875, -0.808837890625, 0.4752197265625, -0.43951416015625, -0.4381103515625, 0.37420654296875, -0.412353515625, -0.12640380859375, 0.10443115234375, -0.33270263671875, -0.29364013671875, 0.0977783203125, 0.52783203125, -0.2191162109375, 0.1485595703125, 1.3603515625, -0.3818359375, 0.11175537109375, 0.43426513671875, 0.18060302734375, -0.5474853515625, 0.66845703125, 0.3726806640625, -0.09368896484375, -0.0902099609375, -0.50244140625, -0.4595947265625, 0.4600830078125, -0.19140625, -0.21441650390625, 0.357421875, -0.07366943359375, -0.33355712890625, 0.148681640625, -0.3323974609375, -0.263427734375, -0.03289794921875, 0.185546875, -0.23785400390625, -0.27801513671875, 0.212158203125, 0.88861083984375, 0.41802978515625, 0.40557861328125, -0.1729736328125, 0.3236083984375, 0.3115234375, -0.08734130859375, -0.59942626953125, -0.08026123046875, 0.32806396484375, 0.23870849609375, 0.6229248046875, -0.16851806640625, 0.29388427734375, 0.35516357421875, 0.293701171875, 0.611572265625, -0.1346435546875, -0.01055908203125, -0.4166259765625, -0.0838623046875, 0.9168701171875, -0.2393798828125, 0.16925048828125, -0.12139892578125, 0.08551025390625, -0.302978515625, -0.97503662109375, 0.092529296875, 0.18328857421875, 0.1046142578125, -0.3226318359375, -0.38995361328125, 0.2177734375, -0.1324462890625, 0.25848388671875, -0.14031982421875, -0.379150390625, 1.99847412109375, 0.43853759765625, 0.46453857421875, 0.3291015625, 0.05072021484375, 0.05084228515625, -0.25830078125, 0.19671630859375, -0.30816650390625, 0.3297119140625, -0.01239013671875, 0.076416015625, 0.13165283203125, 0.1484375, 0.31317138671875, -0.16558837890625, 0.1494140625, -0.1365966796875, 0.0504150390625, 0.02191162109375, -0.1776123046875, 0.25299072265625, 0.556884765625, -0.3277587890625, -0.0323486328125, -0.165283203125, -0.1512451171875, 0.71240234375, 0.11944580078125, -0.00335693359375, -0.17694091796875, 0.2393798828125, 0.094482421875, 0.51361083984375, -0.3709716796875, 0.4931640625, -0.374755859375, -0.26104736328125, 0.07501220703125, -0.20562744140625, -0.105224609375, 0.08782958984375, -0.2786865234375, 0.04156494140625, 0.0196533203125, 0.42529296875, -0.17572021484375, 0.0191650390625, -0.0491943359375, -0.26751708984375, 0.3197021484375, -0.0570068359375, -0.07427978515625, -0.03057861328125, 0.69207763671875, -0.31097412109375, 0.3673095703125, 0.12493896484375, -0.334716796875, 0.26031494140625, 0.48382568359375, 0.22869873046875, 0.33343505859375, 0.33514404296875, 0.09234619140625, -0.089111328125, -0.05780029296875, -0.34161376953125, -0.1298828125, -0.439453125, -0.17596435546875, 0.06597900390625, 0.46551513671875, 0.14276123046875, 0.11822509765625, 0.4168701171875, 0.19439697265625, -0.08123779296875, 0.35400390625, -0.0848388671875, -0.04229736328125, 0.511962890625, -0.0850830078125, 0.264892578125, 0.044189453125, 0.29095458984375, -0.02032470703125, 0.12664794921875, 0.26727294921875, 0.08099365234375, -0.2254638671875, 0.24810791015625, 0.4708251953125, 0.76214599609375, 0.32098388671875, 0.4595947265625, 0.0113525390625, -0.408935546875, 0.14825439453125, 0.16534423828125, -0.0107421875, 0.162841796875, 0.20709228515625, -0.09747314453125, 0.3963623046875, -0.0587158203125, 0.17144775390625, 0.2196044921875, 0.16949462890625, -0.03753662109375, -0.1051025390625, -0.08575439453125, 0.25665283203125, -0.155029296875, -0.14788818359375, 0.30230712890625, 0.05767822265625, 0.11431884765625, 0.2432861328125, 0.14556884765625, 0.0299072265625, 0.0177001953125, -0.15008544921875, 0.1484375, 0.03704833984375, 0.0098876953125, -0.1407470703125, -0.109619140625, -0.153076171875, -0.12213134765625, -0.13885498046875, -0.38543701171875, 0.0509033203125, 0.109130859375, 0.10699462890625, -0.16644287109375, 0.15509033203125, -0.08599853515625, -0.02044677734375, -0.16693115234375, -0.2713623046875, -0.14862060546875, -0.137939453125, -0.29541015625, -0.1055908203125, 0.17987060546875, -0.08642578125, 0.2589111328125, -0.19158935546875, -0.09576416015625, 0.012451171875, -0.0684814453125, 0.25244140625, 0.09375, -0.138916015625, 0.04364013671875, -0.06964111328125, -0.12939453125, 0.4052734375, 0.212890625, -0.09100341796875, 0.12518310546875, -0.07666015625, 0.0224609375, 0.3565673828125, -0.01318359375, -0.02325439453125, -0.06915283203125, 0.1123046875, -0.1138916015625, 0.0113525390625, 0.16253662109375, 0.1927490234375, -0.17657470703125, 0.094970703125, -0.24713134765625, -0.0234375, 0.0714111328125, -0.11138916015625, 0.015380859375, 0.0550537109375, -0.23455810546875, -0.23529052734375, -0.29278564453125, 0.04302978515625, -0.241455078125, -0.17236328125, -0.02252197265625, 0.09423828125, 0.12298583984375, 0.07275390625, 0.0430908203125, -0.22320556640625, 0.2884521484375, 0.0107421875, 0.1473388671875, -0.2391357421875, 0.05047607421875, -0.27349853515625, 0.0264892578125, 0.11712646484375, -0.02496337890625, 0.0247802734375, -0.37188720703125, 0.207275390625, -0.1324462890625, 0.09454345703125, -0.0216064453125, 0.2879638671875, -0.24530029296875, -0.035400390625, -0.49945068359375, -0.28216552734375, 0.22479248046875, 0.27239990234375, -0.0194091796875, -1.0172119140625, 0.17132568359375, 0.12982177734375, -0.24951171875, 0.2213134765625, 0.12969970703125, 0.3323974609375, -0.24249267578125, -0.18560791015625, -0.312744140625, -0.2158203125, 0.47003173828125, -0.06304931640625, 0.12933349609375, -0.294921875, -0.31573486328125, -0.35833740234375, -0.368896484375, 0.1744384765625, -0.4605712890625, 0.51910400390625, 0.03082275390625, -0.13470458984375, -0.14715576171875, -0.23583984375, -0.1109619140625, -0.17083740234375, 0.2784423828125, 0.2392578125, 0.2177734375, 0.4482421875, -0.16766357421875, -0.45318603515625, 0.81146240234375, -0.124267578125, -0.271484375, -0.12127685546875, 0.0545654296875, -0.88458251953125, 0.39715576171875, -0.40869140625, 0.06280517578125, -0.1427001953125, 0.4869384765625, 0.17950439453125, 0.4940185546875, -0.27484130859375, 0.390380859375, 0.28887939453125, -0.30035400390625, -0.13330078125, 0.045654296875, -0.2657470703125, 0.49310302734375, -1.0794677734375, 0.56536865234375, -0.1942138671875, 0.12164306640625, -0.25762939453125, -0.58807373046875, 0.05487060546875, -0.009521484375, -0.3790283203125, -0.7479248046875, 0.71771240234375, -0.08782958984375, -0.4468994140625, -0.428466796875, 0.46966552734375, 0.38409423828125, -0.2005615234375, 0.11260986328125, -0.2421875, 0.21771240234375, 0.731689453125, -0.1177978515625, -0.1007080078125, 0.38140869140625, -0.1070556640625, -0.3812255859375, -0.32269287109375, -0.7899169921875, 0.11187744140625, 0.3052978515625, -0.027587890625, -0.16802978515625, 0.51373291015625, 0.3802490234375, -0.2525634765625, -0.6182861328125, -0.17938232421875, 0.34991455078125, -0.0986328125, 0.271240234375, 0.2554931640625, 0.20513916015625, -0.0716552734375, 0.06219482421875, 0.06854248046875, -0.09649658203125, 0.15509033203125, 0.28448486328125, 0.341064453125, -0.05352783203125, 0.075439453125, -0.1243896484375, -0.0714111328125, 0.3896484375, -0.2733154296875, 0.150390625, 0.19317626953125, -0.08233642578125, 0.08270263671875, -0.19927978515625, 0.0987548828125, -0.14080810546875, -0.10089111328125, -0.03082275390625, -0.0687255859375, -0.31610107421875, -0.02435302734375, 0.1119384765625, -0.455322265625, 0.17901611328125, 0.277587890625, 0.1756591796875, -0.01708984375, 0.023193359375, 0.37359619140625, -0.22296142578125, -0.0574951171875, 0.187744140625, 0.0169677734375, 0.1259765625, 0.01129150390625, -0.31683349609375, 0.27838134765625, -0.35498046875, -0.0723876953125, 0.068359375, 0.51947021484375, 0.61907958984375, 0.21759033203125, -0.10400390625, 0.1578369140625, 0.65985107421875, -0.301025390625, 0.44207763671875, -0.05206298828125, -0.101318359375, -0.00762939453125, -0.14947509765625, -0.18780517578125, 0.1146240234375, 0.38372802734375, 0.09112548828125, 0.40826416015625, -0.207275390625, -0.0244140625, -0.001220703125, -0.0518798828125, -0.19171142578125, 0.559326171875, 0.1217041015625, -0.17486572265625, 0.01910400390625, 0.0020751953125, 0.42022705078125, 0.313232421875, -0.25347900390625, -0.3863525390625, 0.29473876953125, -0.571044921875, -0.016845703125, 0.13848876953125, 0.425048828125, 0.07867431640625, 0.19171142578125, 0.26214599609375, -0.216552734375, -0.138916015625, -0.0218505859375, -0.29217529296875, 0.093505859375, -0.0655517578125, 0.3214111328125, -0.160888671875, 0.0264892578125, 0.52520751953125, 0.0389404296875, 0.1614990234375, 0.26556396484375, -0.06329345703125, 0.40362548828125, -0.1190185546875, -0.51788330078125, -0.32818603515625, -0.02886962890625, 0.20672607421875, 0.3057861328125, -0.03302001953125, -0.54949951171875, -0.11865234375, -0.37225341796875, 0.06842041015625, -0.34222412109375, -0.3922119140625, -0.0634765625, 0.0423583984375, 0.41180419921875, -0.21112060546875, 0.1844482421875, 0.02093505859375, 0.5062255859375, 0.2674560546875, -0.7388916015625, 0.09393310546875, -0.44921875, 0.70098876953125, 0.0062255859375, 0.02813720703125, -0.65313720703125, 0.41217041015625, 0.075927734375, 0.02490234375, 0.17474365234375, -0.08856201171875, -0.24749755859375, -0.08966064453125, -0.0740966796875, 0.08013916015625, 0.16156005859375, -0.00115966796875, -0.01123046875, -0.069580078125, -0.2294921875, 0.29840087890625, -0.013671875, 0.61981201171875, -0.3021240234375, 0.60302734375, -0.14654541015625, -0.18548583984375, 0.09893798828125, 0.12982177734375, -0.64019775390625, 0.5313720703125, 0.11199951171875, 0.07135009765625, -0.13763427734375, -0.09832763671875, 0.18170166015625, -0.54986572265625, -0.23614501953125, 0.3328857421875, 0.117431640625, 0.33892822265625, -0.23577880859375, -0.0970458984375, -0.10614013671875, -0.1168212890625, -0.1009521484375, 0.703369140625, -0.0322265625, -0.00946044921875, 0.65582275390625, 0.1484375, -0.51318359375, 0.56103515625, -0.27587890625, 0.205810546875, 0.3302001953125, 0.169189453125, 0.0032958984375, 0.24798583984375, -0.1578369140625, 0.6536865234375, 0.2509765625, -0.097900390625, 0.40350341796875, -0.39068603515625, 0.19366455078125, -0.29058837890625, 0.0338134765625, 0.2813720703125, -0.08203125, -0.04754638671875, -0.1929931640625, -0.00994873046875, 0.171142578125, 0.16143798828125, -0.25244140625, -0.1453857421875, -0.1490478515625, 0.25115966796875, -0.0750732421875, -0.06109619140625, -0.51983642578125, 0.017822265625, 0.12652587890625, -0.1605224609375, -0.21380615234375, -0.3603515625, -0.17431640625, -0.0101318359375, -0.7628173828125, -0.01605224609375, -0.2735595703125, -0.59429931640625, 0.01580810546875, 0.2103271484375, -0.22314453125, 0.302001953125, -0.11187744140625, 0.3892822265625, -0.04571533203125, -0.010986328125, 0.2491455078125, 0.02325439453125, -0.333251953125, -0.001220703125, -0.37103271484375, -0.55438232421875, -0.180908203125, 0.29681396484375, -0.22021484375, -0.484375, 0.75653076171875, 0.207763671875, 0.0380859375, -0.01336669921875, -0.28485107421875, -0.22247314453125, -0.24462890625, 0.3687744140625, -0.349365234375, -0.31268310546875, -0.20233154296875, -0.05963134765625, -0.30828857421875, 0.28070068359375, 0.0296630859375, -0.3818359375, 0.03253173828125, 0.012939453125, 0.441650390625, 0.5340576171875, -0.51739501953125, 0.05975341796875, -0.23065185546875, -0.14935302734375, 0.1593017578125, 0.0223388671875, 0.10137939453125, -0.19818115234375, 0.25311279296875, -0.16259765625, 0.27752685546875, -0.20928955078125, 0.31634521484375, 0.18927001953125, 0.29290771484375, 0.17791748046875, 0.03509521484375, -0.05963134765625, -0.248046875, -0.5274658203125, 0.0230712890625, 0.135986328125, -0.1170654296875, 0.141357421875, -0.5537109375, 0.009765625, 0.081787109375, 0.0938720703125, 0.29022216796875, 0.25592041015625, 0.38677978515625, 0.0396728515625, 0.05224609375, -0.1322021484375, -0.11187744140625, 0.24688720703125, -0.1226806640625, -0.058349609375, -0.327392578125, -0.2720947265625, 0.3585205078125, 0.1593017578125, 0.0662841796875, -0.20794677734375, -0.21282958984375, -0.66253662109375, -0.1312255859375, 0.21868896484375, 1.0540771484375, 0.39276123046875, 0.01934814453125, -0.17108154296875, -0.25286865234375, 0.03857421875, -0.117919921875, 0.22723388671875, -0.1910400390625, -0.384765625, -0.67755126953125, -0.5384521484375, 0.7012939453125, -0.48541259765625, 0.74139404296875, 0.0838623046875, -0.40716552734375, 0.45013427734375, -0.10601806640625, 0.203125, 0.29852294921875, -0.24102783203125, 0.48284912109375, 0.163330078125, 0.65447998046875, -0.12786865234375, -0.53924560546875, -0.515869140625, -0.250732421875, 0.08251953125, 0.03070068359375, -0.36077880859375, -0.41558837890625, -0.181640625, -0.30059814453125, 0.15386962890625, 0.18853759765625, -0.611083984375, 0.70941162109375, 0.34051513671875, 0.0762939453125, -0.04510498046875, 0.2919921875, 0.2183837890625, -1.0653076171875, 0.1978759765625, -0.03924560546875, -0.43218994140625, -0.04742431640625, 0.5501708984375, 0.54718017578125, -0.089599609375, -0.13818359375, -0.15240478515625, -0.1669921875, 0.150146484375, -0.527099609375, -0.19586181640625, 0.5865478515625, 0.10089111328125, -0.708984375, -0.188232421875, -0.69952392578125, -0.37152099609375, 0.22503662109375, 0.01470947265625, 0.21063232421875, -0.08233642578125, 0.5274658203125, 0.330810546875, 0.72894287109375, 0.10394287109375, 0.07269287109375, -0.028564453125, 0.03070068359375, -0.18280029296875, -0.11553955078125, 0.36883544921875, -0.27301025390625, -0.18096923828125, -0.08111572265625, -0.126220703125, -0.367919921875, -0.243408203125, 0.22967529296875, -0.12353515625, -0.2799072265625, 0.52764892578125, -0.24505615234375, 0.33721923828125, 0.31591796875, 0.35247802734375, -0.27813720703125, 0.02911376953125, -0.79449462890625, 0.075927734375, 0.3453369140625, -0.56243896484375, 0.1448974609375, -0.06890869140625, 0.0809326171875, -0.26470947265625, -0.10406494140625, 0.01171875, 0.37542724609375, -0.07080078125, 0.134521484375, 0.23858642578125, 0.14581298828125, 0.36212158203125, -0.69378662109375, -0.355224609375, -0.09002685546875, -0.12945556640625, 0.57733154296875, 0.10821533203125, -0.24554443359375, 0.10687255859375, 0.137451171875, 0.35260009765625, 0.0859375, 0.40631103515625, 0.02484130859375, 0.32958984375, 0.132080078125, -0.29547119140625, -0.50030517578125, 0.070556640625, -0.20782470703125, -0.37066650390625, -0.31536865234375, -0.4278564453125, 0.8934326171875, -0.21942138671875, 0.02484130859375, 0.2431640625, -0.19598388671875, -0.5592041015625, -0.3084716796875, 0.50518798828125, 0.07659912109375, -0.48291015625, -0.08056640625, -0.11749267578125, -0.240966796875, 0.3121337890625, -0.1202392578125, -0.4639892578125, 0.15838623046875, 0.4410400390625, 0.2921142578125, -0.24261474609375, -0.3787841796875, 0.1448974609375, -0.05657958984375, -0.289306640625, -0.0970458984375, -0.30499267578125, -0.14605712890625, 0.18438720703125, -0.29718017578125, -0.938720703125, 0.79144287109375, 0.01513671875, -0.36712646484375, -0.0977783203125, 0.44757080078125, 0.0775146484375, -0.35516357421875, -0.44866943359375, 0.1964111328125, 0.20294189453125, -0.14434814453125, -0.22430419921875, 0.8953857421875, 0.20361328125, -0.87420654296875, -0.24981689453125, 0.13311767578125, -0.09625244140625, -0.72064208984375, 0.11602783203125, -0.1326904296875, -0.31805419921875, -0.1861572265625, 0.519287109375, -0.09552001953125, -0.187255859375, 0.410400390625, -0.15142822265625, -0.1807861328125, -0.19415283203125, -0.344482421875, 0.28985595703125, 0.18280029296875, 0.22515869140625, -0.19696044921875, -0.17999267578125, 0.06854248046875, -0.04388427734375, -0.39105224609375, 0.37066650390625, -0.30914306640625, 0.33001708984375, 0.09710693359375, -0.1380615234375, 0.23846435546875, -0.01055908203125, 0.12982177734375, -0.352783203125, -0.38458251953125, -0.27996826171875, 1.34637451171875, 0.28558349609375, -0.10333251953125, -0.3726806640625, 0.00823974609375, -0.29852294921875, -0.61199951171875, 0.20745849609375, -0.067138671875, 0.17706298828125, 0.33258056640625, 0.3009033203125, -0.77630615234375, -0.0299072265625, 0.10113525390625, 0.75048828125, -0.37506103515625, -0.603759765625, -0.062744140625, -0.50628662109375, 0.1329345703125, 0.34600830078125, 0.610595703125, 0.80474853515625, -0.0609130859375, 0.09002685546875, -0.22808837890625, -0.50653076171875, 0.22119140625, 0.0469970703125, -0.6434326171875, -0.4874267578125, -0.50799560546875, 0.01483154296875, 0.04083251953125, -0.5203857421875, -0.2115478515625, 0.385498046875, 0.549072265625, -0.42877197265625, 0.06787109375, -0.0740966796875, 0.8311767578125, -0.64410400390625, -0.40411376953125, 0.1463623046875, 0.31756591796875, 0.45672607421875, -0.19927978515625, -0.75506591796875, 0.06561279296875, -0.444580078125, 0.4410400390625, -0.10552978515625, 0.0711669921875, 0.33807373046875, -0.460205078125, 0.32159423828125, 0.12744140625, 1.0087890625, 0.01470947265625, -0.1224365234375, 0.4337158203125, 0.041015625, 0.11541748046875, 1.1064453125, -0.510986328125, 0.52020263671875, -0.05914306640625, 0.1396484375, 0.874755859375, 0.13201904296875, -0.311767578125, 0.00537109375, 0.08880615234375, 0.37689208984375, 1.42987060546875, 0.41839599609375, -0.8388671875, 0.58721923828125, 0.32647705078125, -0.40228271484375, -0.33001708984375, -0.10345458984375, 0.0614013671875, -0.174072265625, -0.28875732421875, 0.169677734375, -0.1683349609375, -0.13409423828125, 0.23565673828125, -0.74749755859375, -0.33966064453125, -0.1121826171875, -0.320556640625, 0.0892333984375, -0.115234375, 0.27252197265625, 0.05340576171875, 0.10003662109375, 0.49560546875, -0.21484375, -0.5245361328125, -0.29638671875, 0.51153564453125, -0.10797119140625, -0.23626708984375, -0.19854736328125, 0.4967041015625, 0.23199462890625, -0.005859375, -0.16070556640625, 0.50347900390625, 0.34124755859375, -0.07891845703125, -0.276123046875, 0.26348876953125, 0.2294921875, 0.10821533203125, -0.70220947265625, 0.79412841796875, -0.05792236328125, 0.05853271484375, -0.7333984375, -0.4959716796875, 0.1717529296875, -0.2650146484375, 0.07183837890625, 0.14306640625, 0.54058837890625, -0.48638916015625, -0.6180419921875, 0.8775634765625, 0.296630859375, 0.82330322265625, -0.6102294921875, 0.06280517578125, 0.30517578125, 0.38623046875, -0.1290283203125, 0.28387451171875, 0.08837890625, -0.2603759765625, 0.98748779296875, -0.5455322265625, 0.0330810546875, 0.0709228515625, -0.32989501953125, -0.03997802734375, -0.3212890625, 1.156005859375, -0.075927734375, -0.134033203125, 1.8587646484375, 0.25994873046875, 0.15185546875, -0.25457763671875, 0.064208984375, -0.04913330078125, -0.069580078125, -0.3575439453125, 0.17889404296875, 0.157470703125, -0.42169189453125, 0.3341064453125, 0.197021484375, 1.1319580078125, 0.3187255859375, 0.05999755859375, -0.09088134765625, -0.21807861328125, 0.20684814453125, -0.028076171875, 0.0460205078125, 0.10076904296875, -0.22900390625, -0.808349609375, 1.988525390625, -0.99639892578125, 0.4517822265625, 0.55511474609375, -0.0584716796875, -0.7113037109375, -0.2982177734375, -0.53668212890625, -0.221435546875, -0.09979248046875, 0.16839599609375, 0.50811767578125, -0.11151123046875, -0.04107666015625, 0.2122802734375, -0.31048583984375, 0.76983642578125, 0.2718505859375, 0.1458740234375, -0.21453857421875, -0.0640869140625, -0.41876220703125, 0.38299560546875, -0.0469970703125, 0.3717041015625, 0.02313232421875, -0.083251953125, -0.32464599609375, 0.028564453125, 0.15264892578125, -0.02056884765625, 0.87640380859375, -0.42584228515625, -0.72900390625, 0.1727294921875, 0.66973876953125, 0.06256103515625, 0.08447265625, -0.260986328125, -0.16290283203125, -0.1668701171875, -1.1455078125, -0.4532470703125, -0.581787109375, -1.5499267578125, 0.47314453125, 0.4586181640625, -0.6507568359375, -0.4454345703125, 0.30938720703125, 0.16412353515625, 0.07208251953125, -0.5400390625, 0.37445068359375, -0.0908203125, 0.3873291015625, 0.04486083984375, 0.190673828125, 0.307861328125, 0.185546875, 0.10626220703125, -0.47467041015625, 0.4554443359375, -0.42340087890625, 0.06500244140625, 1.01611328125, 0.15740966796875, 0.215576171875, -0.56396484375, -0.02069091796875, 0.01348876953125, -0.07159423828125, -0.61279296875, -0.5338134765625, 0.12255859375, -0.54693603515625, -0.15753173828125, 0.42913818359375, -0.028564453125, 0.2049560546875, -0.00238037109375, -0.7562255859375, -0.59063720703125, 1.461181640625, 0.63848876953125, 1.2750244140625, -0.0445556640625, 0.11944580078125, -1.802001953125, -0.60858154296875, 0.10772705078125, -0.0400390625, -0.0552978515625, 0.0574951171875, -0.51336669921875, -0.4052734375, 0.27154541015625, 0.0108642578125, -0.06134033203125, 0.11993408203125, 0.36383056640625, -0.22088623046875, -0.13507080078125, 0.2186279296875, 0.064208984375, 0.12542724609375, -0.66119384765625, 0.838623046875, -0.300537109375, -0.39453125, -0.14251708984375, 0.0794677734375, 0.13079833984375, -0.1239013671875, -0.4041748046875, 0.14312744140625, -1.07635498046875, -1.05157470703125, -0.078857421875, 0.0438232421875, -0.02777099609375, -0.18994140625, -0.009765625, 0.2435302734375, 1.93963623046875, -0.23138427734375, 0.23138427734375, -0.09417724609375, 0.1209716796875, -0.33197021484375, -0.4144287109375, 0.01141357421875, -0.01983642578125, -0.12115478515625, -0.1279296875, -0.01971435546875, -0.3211669921875, 0.01116943359375, -1.82501220703125, -0.3731689453125, 0.10125732421875, -0.11932373046875, 0.01312255859375, 0.4300537109375, 0.19854736328125, 0.005126953125, 0.1365966796875, 0.24896240234375, 0.1710205078125, 1.365234375, -0.05279541015625, 0.08587646484375, -0.08697509765625, 0.1312255859375, 0.20758056640625, -0.2015380859375, 0.251953125, 0.0845947265625, 0.30682373046875, 0.30450439453125, 1.63775634765625, -0.1109619140625, -0.2264404296875, -0.4232177734375, -0.48773193359375, -0.31182861328125, 0.78173828125, 0.4208984375, -0.39373779296875, 0.25848388671875, 0.03936767578125, -0.00543212890625, 0.26373291015625, -0.59710693359375, 0.67950439453125, 0.36370849609375, -0.65704345703125, -0.4293212890625, 0.26116943359375, -0.391357421875, -0.3974609375, 0.51275634765625, -0.0848388671875, -0.1292724609375, -0.37640380859375, -1.12939453125, 0.73583984375, 0.50946044921875, -0.42437744140625, 0.0576171875, -0.00701904296875, 0.6298828125, -0.10711669921875, -0.6005859375, -1.9417724609375, 0.735107421875, -0.35479736328125, 0.36883544921875, -0.2276611328125, 0.40631103515625, 0.19256591796875, 0.16741943359375, 0.28314208984375, 0.015625, -0.72479248046875, 0.76605224609375, 0.819580078125, -0.6094970703125, 0.03973388671875, 0.2542724609375, 0.03094482421875, 0.0401611328125, -0.08282470703125, 0.0020751953125, 1.0048828125, -0.5093994140625, -0.5062255859375, 0.004638671875, -0.98388671875, 0.0540771484375, 0.1090087890625, 0.471923828125, -0.1181640625, -1.06927490234375, 0.17822265625, 0.1160888671875, -0.042236328125, 0.17950439453125, 0.5960693359375, -0.964111328125, -0.15771484375, 0.45257568359375, -0.0772705078125, -1.659423828125, 0.57269287109375, -0.3822021484375, -0.0299072265625, -0.00726318359375, 0.22369384765625, -0.45361328125, -0.2574462890625, 0.609619140625, -0.701416015625, 0.0828857421875, 1.10089111328125, 0.76953125, 0.1812744140625, -0.4615478515625, 0.2791748046875, -0.2208251953125, -0.13348388671875, -0.16986083984375, 0.15631103515625, -0.0638427734375, -0.51409912109375, 0.48406982421875, -0.40252685546875, 0.4385986328125, 0.716064453125, -1.045166015625, -0.15557861328125, -0.32305908203125, 0.03424072265625, 0.28741455078125, -1.51617431640625, 0.3292236328125, 0.02642822265625, -0.13360595703125, 0.8355712890625, 0.15582275390625, -0.46514892578125, 0.60797119140625, 0.083984375, 0.01287841796875, -0.02862548828125, -0.22894287109375, 0.11407470703125, -0.24493408203125, -0.29315185546875, -1.45343017578125, 0.15704345703125, -0.15130615234375, -0.751220703125, 0.28033447265625, -0.77734375, -0.1871337890625, 0.18017578125, 0.35528564453125, 0.34747314453125, -0.00567626953125, 0.21551513671875, 0.95184326171875, 0.1793212890625, -0.175537109375, 0.2322998046875, -0.4580078125, 0.46685791015625, 0.91815185546875, 0.04034423828125, 0.02349853515625, 0.07806396484375, 0.7269287109375, 0.01318359375, 0.24615478515625, 0.12017822265625, -0.61175537109375, -0.02142333984375, -0.4805908203125, 0.01287841796875, 0.85107421875, 0.4896240234375, 0.03497314453125, -0.02606201171875, 0.05950927734375, -0.128662109375, 0.03851318359375, -0.04620361328125, 0.139892578125, -0.0042724609375, -0.23297119140625, -1.73345947265625, -0.10919189453125, 0.252197265625, -0.30621337890625, -0.56207275390625, 0.43365478515625, -0.00341796875, 0.5601806640625, 0.09088134765625, -0.065673828125, -0.0504150390625, -0.265869140625, 0.27215576171875, -0.322265625, 1.2425537109375, -0.02105712890625, 0.05352783203125, -0.08111572265625, 0.3046875, 0.38165283203125, -0.3487548828125, 0.27783203125, -0.33697509765625, -0.33966064453125, -0.31195068359375, -0.72479248046875, -0.3704833984375, -0.490478515625, -0.43603515625, 0.2384033203125, -0.12615966796875, 0.1514892578125, -0.0, 1.04058837890625, -0.15081787109375, 0.0194091796875, -0.146728515625, 0.114501953125, -0.21917724609375, -0.21502685546875, -0.07696533203125, -0.25006103515625, 0.1121826171875, -0.52490234375, 0.07733154296875, -0.076416015625, -0.323486328125, -0.000244140625, 0.53399658203125, -0.1097412109375, 0.02685546875, 0.02484130859375, 0.0045166015625, 0.0286865234375, 0.50067138671875, 0.012939453125, 0.2528076171875, 0.5272216796875, 0.24102783203125, -0.5736083984375, -0.321533203125, -0.5465087890625, 0.79974365234375, -0.13861083984375, 0.2449951171875, -0.0064697265625, -0.04364013671875, -0.29888916015625, -1.135009765625, -0.09735107421875, 0.599365234375, 0.082275390625, -0.3521728515625, 0.23077392578125, 0.178955078125, -1.0164794921875, 0.18865966796875, 0.286376953125, 0.103515625, -0.7012939453125, 0.1282958984375, -0.814453125, -0.1556396484375, 0.31268310546875, -0.23297119140625, 0.05126953125, 0.54608154296875, 0.37835693359375, 0.2060546875, -0.48193359375, 0.25750732421875, 0.17254638671875, 0.01312255859375, -0.558837890625, -0.07537841796875, 0.02789306640625, -0.08013916015625, -0.7415771484375, 0.0576171875, -0.28387451171875, 0.4984130859375, -0.24969482421875, -0.1431884765625, 0.22088623046875, -0.661865234375, -0.3302001953125, 0.49139404296875, 0.036376953125, 0.7982177734375, -0.01910400390625, 0.61212158203125, -0.4564208984375, -0.111328125, 0.731201171875, -0.46331787109375, -1.0460205078125, 0.04779052734375, -0.817138671875, 1.588623046875, 0.3131103515625, 0.31304931640625, 1.0345458984375, 0.1171875, 0.7769775390625, 0.36053466796875, -0.1390380859375, 0.65460205078125, -0.55078125, 0.21051025390625, 0.12786865234375, 0.043701171875, 0.89056396484375, 0.234619140625, -0.5789794921875, 0.72589111328125, -0.05352783203125, -0.25372314453125, 1.37677001953125, -0.29669189453125, 0.30865478515625, -0.12567138671875, -0.1795654296875, -0.00518798828125, 0.52178955078125, -0.10595703125, -0.7154541015625, -0.12188720703125, -0.39892578125, 1.1483154296875, -1.31048583984375, 0.23663330078125, -0.09783935546875, -0.0606689453125, -0.08526611328125, -0.22625732421875, -0.01416015625, 0.19970703125, 0.07965087890625, 0.0784912109375, -0.05255126953125, -1.4000244140625, -0.00909423828125, 0.13604736328125, -0.90887451171875, -0.57293701171875, -0.0936279296875, -0.23150634765625, 0.23162841796875, -0.0447998046875, -0.02362060546875, 0.0489501953125, -0.50048828125, -0.13690185546875, -0.11798095703125, 0.90087890625, -0.0250244140625, -0.2166748046875, -0.1455078125, -0.25775146484375, -0.09967041015625, 0.01385498046875, -0.25970458984375, -0.8876953125, 0.82855224609375, -0.66815185546875, -0.528564453125, -0.75189208984375, 0.0718994140625, 0.17315673828125, -0.47320556640625, 0.06927490234375, -1.3477783203125, -0.015625, 0.23583984375, 0.1246337890625, -0.13226318359375, -0.30718994140625, 0.3636474609375, -6.103515625e-05, 0.64459228515625, 0.2744140625, 0.31298828125, 0.346435546875, -0.67095947265625, 0.0279541015625, -0.122314453125, 0.0902099609375, 0.67645263671875, -0.2220458984375, 0.05364990234375, -0.15771484375, -0.357666015625, -0.2904052734375, 0.38629150390625, 0.11376953125, -0.1962890625, -0.42584228515625, 0.45428466796875, -0.3536376953125, -0.5645751953125, 0.1650390625, -0.43365478515625, 0.7274169921875, -0.19744873046875, -1.30291748046875, -0.4287109375, 1.03277587890625, -0.164306640625, 0.03436279296875, -0.06396484375, 0.06109619140625, -0.19415283203125, 0.532470703125, 0.117919921875, 0.0341796875, -0.79852294921875, -0.51397705078125, -1.267578125, 0.61090087890625, -0.08538818359375, 0.0184326171875, -0.306884765625, -0.84832763671875, 1.5762939453125, 0.38323974609375, 0.76031494140625, 0.17919921875, -0.6875, 0.90460205078125, -1.12579345703125, 0.0030517578125, 0.36865234375, 0.2724609375, -0.26165771484375, 1.02740478515625, 0.570556640625, -0.555908203125, 0.22967529296875, -0.012451171875, 0.54736328125, 0.32061767578125, -0.07208251953125, 0.2342529296875, 0.44488525390625, 0.098388671875, -1.12432861328125, -0.3736572265625, 0.595947265625, -0.42071533203125, 0.063232421875, 0.09564208984375, -0.05633544921875, -0.298095703125, 0.15625, -0.305419921875, -0.037841796875, -0.1888427734375, -0.0230712890625, 0.7091064453125, 1.2301025390625, -0.0340576171875, 0.345947265625, 0.421875, 1.41400146484375, 0.42083740234375, 0.68463134765625, -0.18707275390625, 0.372802734375, 0.47869873046875, -0.40008544921875, -0.40252685546875, -0.4940185546875, -0.361083984375, -0.16290283203125, -0.66015625, 0.68304443359375, -1.42889404296875, 0.5753173828125, 0.12890625, 0.130859375, -0.058837890625, 0.04736328125, 0.06103515625, 0.08856201171875, 0.026611328125, 0.41094970703125, -0.1846923828125, -0.560546875, -1.55804443359375, 0.6109619140625, -0.0260009765625, 0.07086181640625, 0.07421875, -0.03326416015625, 0.25213623046875, 0.2467041015625, -0.108154296875, 0.02435302734375, 0.0496826171875, -0.22314453125, 1.65185546875, -0.040771484375, -0.37213134765625, 0.58013916015625, -0.220703125, 1.1669921875, -0.14996337890625, -1.013916015625, -0.71649169921875, 0.39190673828125, 0.3885498046875, -0.27850341796875, -0.611572265625, 0.8992919921875, 0.4298095703125, -0.2054443359375, 0.18231201171875, -0.06109619140625, 0.17108154296875, -0.201904296875, -0.2655029296875, -2.0, -0.118408203125, 0.04473876953125, 0.09271240234375, 0.9443359375, -0.62005615234375, 0.3521728515625, -0.54119873046875, -0.591064453125, 0.70806884765625, 0.54205322265625, 0.216064453125, 0.1953125, -0.19134521484375, -0.4580078125, -0.5860595703125, 1.99957275390625, 0.89556884765625, 0.6204833984375, 0.8209228515625, -0.71441650390625, 0.51177978515625, 0.77532958984375, -0.2010498046875, 0.945556640625, -1.70941162109375, -0.13861083984375, 0.0360107421875, -0.17657470703125, 0.5106201171875, -0.44903564453125, -0.375, -1.69183349609375, 0.12261962890625, 0.64654541015625, 0.50628662109375, 0.63543701171875, -0.904296875, 0.0614013671875, -0.44927978515625, -0.0504150390625, 0.8953857421875, 0.74310302734375, -0.3411865234375, -0.69439697265625, -0.26031494140625, 0.737548828125, -0.5606689453125, 0.265869140625, -0.53265380859375, -0.2396240234375, -0.55450439453125, 0.4722900390625, 0.38372802734375, 0.58343505859375, -0.0352783203125, -0.045166015625, 0.4705810546875, -0.09735107421875, -0.45062255859375, -0.3079833984375, 0.72161865234375, -0.48333740234375, -0.158203125, -0.977783203125, -0.256103515625, -0.29437255859375, 0.01495361328125, 0.8536376953125, -0.49932861328125, -0.2724609375, -0.53765869140625, -0.59674072265625, 0.14111328125, 0.50531005859375, -0.50604248046875, -0.31756591796875, 0.4945068359375, 0.094482421875, -0.4007568359375, -1.11248779296875, -0.02679443359375, -0.24969482421875, 0.2960205078125, 0.70294189453125, 0.11065673828125, -0.622314453125, -0.4459228515625, -0.8143310546875, -0.266845703125, 0.13177490234375, -0.46246337890625, -0.560302734375, 0.05084228515625, 0.83807373046875, -0.4105224609375, 0.64874267578125, -0.65179443359375, -0.3031005859375, -0.37457275390625, 1.15576171875, 1.02044677734375, -1.11370849609375, -0.14288330078125, -1.25750732421875, -0.10626220703125, -0.42852783203125, 0.1103515625};


#endif
